digraph Tree {
node [shape=box, style="filled, rounded", color="black", fontname="helvetica"] ;
edge [fontname="helvetica"] ;
0 [label=<x<SUB>1</SUB> &le; 0.5<br/>entropy = 1.0<br/>samples = 6<br/>value = [3, 3]>, fillcolor="#ffffff"] ;
1 [label=<entropy = 0.0<br/>samples = 3<br/>value = [3, 0]>, fillcolor="#e58139"] ;
0 -> 1 [labeldistance=2.5, labelangle=45, headlabel="True"] ;
2 [label=<entropy = 0.0<br/>samples = 3<br/>value = [0, 3]>, fillcolor="#399de5"] ;
0 -> 2 [labeldistance=2.5, labelangle=-45, headlabel="False"] ;
}
